Language model created by QuickLM on Mon Dec  2 19:38:52 EST 2019
Copyright (c) 1996-2010 Carnegie Mellon University and Alexander I. Rudnicky

The model is in standard ARPA format, designed by Doug Paul while he was at MITRE.

The code that was used to produce this language model is available in Open Source.
Please visit http://www.speech.cs.cmu.edu/tools/ for more information

The (fixed) discount mass is 0.5. The backoffs are computed using the ratio method.
This model based on a corpus of 228 sentences and 60 words

\data\
ngram 1=60
ngram 2=155
ngram 3=249

\1-grams:
-2.5123 2332 -0.2658
-2.5123 2333 -0.2658
-2.5123 2334 -0.2658
-2.5123 2335 -0.2658
-2.5123 2336 -0.2658
-2.5123 2337 -0.2658
-2.5123 2338 -0.2658
-2.5123 2340 -0.2658
-2.5123 2341 -0.2658
-2.5123 2342 -0.2658
-2.5123 2344 -0.2658
-2.5123 2346 -0.2658
-2.5123 2347 -0.2658
-2.5123 2350 -0.2658
-2.5123 2355 -0.2658
-2.5123 2356 -0.2658
-2.5123 2357 -0.2658
-2.5123 2358 -0.2658
-2.5123 2359 -0.2658
-2.5123 2360 -0.2658
-2.5123 2361 -0.2658
-2.5123 2362 -0.2658
-2.5123 2363 -0.2658
-1.1086 </s> -0.3010
-1.1086 <s> -0.2652
-2.7676 AM -0.2932
-3.1655 ARE -0.3007
-3.4666 ATRIUM? -0.2658
-3.1655 BACKWARD -0.2658
-3.4666 BUILDING -0.3003
-1.7945 DO -0.2935
-3.1655 FORWARD -0.2658
-1.7945 GET -0.2727
-2.8645 GO -0.2998
-3.4666 HELLO -0.3007
-3.4666 HI -0.3007
-1.7764 HOW -0.2937
-1.7676 I -0.2935
-3.1655 I? -0.2658
-2.9894 IN? -0.2658
-2.1048 IS -0.2692
-3.1655 KLAUBA -0.2658
-2.8645 KLAUBA, -0.2890
-3.4666 KLAUBA? -0.2658
-3.1655 LEFT -0.2658
-1.5028 ME -0.2727
-1.7676 MOVE -0.2714
-3.4666 MOVING -0.2658
-3.1655 RIGHT -0.2658
-1.4934 ROOM -0.2684
-1.8038 SHOW -0.2872
-2.9894 STOP -0.2657
-1.8038 TAKE -0.2872
-3.4666 THE -0.3009
-1.1994 TO -0.2538
-3.4666 TODAY, -0.3009
-3.4666 TODAY? -0.2658
-2.9894 WHAT -0.2867
-2.0686 WHERE -0.2969
-3.1655 YOU -0.3007

\2-grams:
-0.3010 2332 </s> -0.3010
-0.3010 2333 </s> -0.3010
-0.3010 2334 </s> -0.3010
-0.3010 2335 </s> -0.3010
-0.3010 2336 </s> -0.3010
-0.3010 2337 </s> -0.3010
-0.3010 2338 </s> -0.3010
-0.3010 2340 </s> -0.3010
-0.3010 2341 </s> -0.3010
-0.3010 2342 </s> -0.3010
-0.3010 2344 </s> -0.3010
-0.3010 2346 </s> -0.3010
-0.3010 2347 </s> -0.3010
-0.3010 2350 </s> -0.3010
-0.3010 2355 </s> -0.3010
-0.3010 2356 </s> -0.3010
-0.3010 2357 </s> -0.3010
-0.3010 2358 </s> -0.3010
-0.3010 2359 </s> -0.3010
-0.3010 2360 </s> -0.3010
-0.3010 2361 </s> -0.3010
-0.3010 2362 </s> -0.3010
-0.3010 2363 </s> -0.3010
-2.0569 <s> GO 0.0000
-2.6590 <s> HELLO 0.0000
-2.6590 <s> HI 0.0000
-0.9777 <s> HOW 0.0000
-2.0569 <s> KLAUBA, 0.0000
-0.9600 <s> MOVE 0.0000
-0.9962 <s> SHOW 0.0000
-2.3579 <s> STOP 0.0000
-0.9962 <s> TAKE 0.0000
-2.3579 <s> WHAT 0.0000
-1.2788 <s> WHERE 0.0000
-0.5229 AM I -0.2878
-0.6990 AM I? 0.0000
-0.3010 ARE YOU 0.0000
-0.3010 ATRIUM? </s> -0.3010
-0.3010 BACKWARD </s> -0.3010
-0.3010 BUILDING AM -0.1461
-0.3010 DO I -0.0253
-0.3010 FORWARD </s> -0.3010
-0.3010 GET TO 0.0000
-0.9031 GO BACKWARD 0.0000
-0.9031 GO FORWARD 0.0000
-0.9031 GO LEFT 0.0000
-0.9031 GO RIGHT 0.0000
-0.3010 HELLO KLAUBA 0.0000
-0.3010 HI KLAUBA 0.0000
-1.6902 HOW ARE 0.0000
-0.3191 HOW DO 0.0000
-0.3279 I GET 0.0000
-1.5229 I IN? 0.0000
-0.3010 I? </s> -0.3010
-0.3010 IN? </s> -0.3010
-1.6628 IS 2332 0.0000
-1.6628 IS 2333 0.0000
-1.6628 IS 2334 0.0000
-1.6628 IS 2335 0.0000
-1.6628 IS 2336 0.0000
-1.6628 IS 2337 0.0000
-1.6628 IS 2338 0.0000
-1.6628 IS 2340 0.0000
-1.6628 IS 2341 0.0000
-1.6628 IS 2342 0.0000
-1.6628 IS 2344 0.0000
-1.6628 IS 2346 0.0000
-1.6628 IS 2347 0.0000
-1.6628 IS 2350 0.0000
-1.6628 IS 2355 0.0000
-1.6628 IS 2356 0.0000
-1.6628 IS 2357 0.0000
-1.6628 IS 2358 0.0000
-1.6628 IS 2359 0.0000
-1.6628 IS 2360 0.0000
-1.6628 IS 2361 0.0000
-1.6628 IS 2362 0.0000
-1.6628 IS 2363 0.0000
-0.3010 KLAUBA </s> -0.3010
-0.9031 KLAUBA, HOW -0.0174
-0.9031 KLAUBA, STOP -0.1249
-0.9031 KLAUBA, WHAT -0.1249
-0.9031 KLAUBA, WHERE -0.2833
-0.3010 KLAUBA? </s> -0.3010
-0.3010 LEFT </s> -0.3010
-0.3010 ME TO -0.0023
-2.0000 MOVE BACKWARD 0.0000
-2.0000 MOVE FORWARD 0.0000
-2.0000 MOVE LEFT 0.0000
-2.0000 MOVE RIGHT 0.0000
-0.3372 MOVE TO -0.0023
-0.3010 MOVING </s> -0.3010
-0.3010 RIGHT </s> -0.3010
-1.6721 ROOM 2332 0.0000
-1.6721 ROOM 2333 0.0000
-1.6721 ROOM 2334 0.0000
-1.6721 ROOM 2335 0.0000
-1.6721 ROOM 2336 0.0000
-1.6721 ROOM 2337 0.0000
-1.6721 ROOM 2338 0.0000
-1.6721 ROOM 2340 0.0000
-1.6721 ROOM 2341 0.0000
-1.6721 ROOM 2342 0.0000
-1.6721 ROOM 2344 0.0000
-1.6721 ROOM 2346 0.0000
-1.6721 ROOM 2347 0.0000
-1.6721 ROOM 2350 0.0000
-1.6721 ROOM 2355 0.0000
-1.6721 ROOM 2356 0.0000
-1.6721 ROOM 2357 0.0000
-1.6721 ROOM 2358 0.0000
-1.6721 ROOM 2359 0.0000
-1.6721 ROOM 2360 0.0000
-1.6721 ROOM 2361 0.0000
-1.6721 ROOM 2362 0.0000
-1.6721 ROOM 2363 0.0000
-1.9731 ROOM AM -0.1461
-0.3010 SHOW ME 0.0000
-0.4771 STOP </s> -0.3010
-0.7782 STOP MOVING 0.0000
-0.3010 TAKE ME 0.0000
-0.3010 THE ATRIUM? 0.0000
-1.9661 TO 2332 0.0000
-1.9661 TO 2333 0.0000
-1.9661 TO 2334 0.0000
-1.9661 TO 2335 0.0000
-1.9661 TO 2336 0.0000
-1.9661 TO 2337 0.0000
-1.9661 TO 2338 0.0000
-1.9661 TO 2340 0.0000
-1.9661 TO 2341 0.0000
-1.9661 TO 2342 0.0000
-1.9661 TO 2344 0.0000
-1.9661 TO 2346 0.0000
-1.9661 TO 2347 0.0000
-1.9661 TO 2350 0.0000
-1.9661 TO 2355 0.0000
-1.9661 TO 2356 0.0000
-1.9661 TO 2357 0.0000
-1.9661 TO 2358 0.0000
-1.9661 TO 2359 0.0000
-1.9661 TO 2360 0.0000
-1.9661 TO 2361 0.0000
-1.9661 TO 2362 0.0000
-1.9661 TO 2363 0.0000
-0.6044 TO ROOM -0.0091
-2.5682 TO THE 0.0000
-0.3010 TODAY, KLAUBA? 0.0000
-0.3010 TODAY? </s> -0.3010
-0.7782 WHAT BUILDING 0.0000
-0.4771 WHAT ROOM -0.2964
-1.3979 WHERE AM -0.2041
-0.3372 WHERE IS -0.0000
-0.6021 YOU TODAY, 0.0000
-0.6021 YOU TODAY? 0.0000

\3-grams:
-0.9031 <s> GO BACKWARD
-0.9031 <s> GO FORWARD
-0.9031 <s> GO LEFT
-0.9031 <s> GO RIGHT
-0.3010 <s> HELLO KLAUBA
-0.3010 <s> HI KLAUBA
-1.6812 <s> HOW ARE
-0.3195 <s> HOW DO
-0.9031 <s> KLAUBA, HOW
-0.9031 <s> KLAUBA, STOP
-0.9031 <s> KLAUBA, WHAT
-0.9031 <s> KLAUBA, WHERE
-2.0000 <s> MOVE BACKWARD
-2.0000 <s> MOVE FORWARD
-2.0000 <s> MOVE LEFT
-2.0000 <s> MOVE RIGHT
-0.3372 <s> MOVE TO
-0.3010 <s> SHOW ME
-0.6021 <s> STOP </s>
-0.6021 <s> STOP MOVING
-0.3010 <s> TAKE ME
-0.6021 <s> WHAT BUILDING
-0.6021 <s> WHAT ROOM
-1.6812 <s> WHERE AM
-0.3195 <s> WHERE IS
-0.3010 AM I IN?
-0.3010 AM I? </s>
-0.6021 ARE YOU TODAY,
-0.6021 ARE YOU TODAY?
-0.3010 BUILDING AM I
-0.3010 DO I GET
-1.9731 GET TO 2332
-1.9731 GET TO 2333
-1.9731 GET TO 2334
-1.9731 GET TO 2335
-1.9731 GET TO 2336
-1.9731 GET TO 2337
-1.9731 GET TO 2338
-1.9731 GET TO 2340
-1.9731 GET TO 2341
-1.9731 GET TO 2342
-1.9731 GET TO 2344
-1.9731 GET TO 2346
-1.9731 GET TO 2347
-1.9731 GET TO 2350
-1.9731 GET TO 2355
-1.9731 GET TO 2356
-1.9731 GET TO 2357
-1.9731 GET TO 2358
-1.9731 GET TO 2359
-1.9731 GET TO 2360
-1.9731 GET TO 2361
-1.9731 GET TO 2362
-1.9731 GET TO 2363
-0.6114 GET TO ROOM
-1.9731 GET TO THE
-0.3010 GO BACKWARD </s>
-0.3010 GO FORWARD </s>
-0.3010 GO LEFT </s>
-0.3010 GO RIGHT </s>
-0.3010 HELLO KLAUBA </s>
-0.3010 HI KLAUBA </s>
-0.3010 HOW ARE YOU
-0.3010 HOW DO I
-0.3010 I GET TO
-0.3010 I IN? </s>
-0.3010 IS 2332 </s>
-0.3010 IS 2333 </s>
-0.3010 IS 2334 </s>
-0.3010 IS 2335 </s>
-0.3010 IS 2336 </s>
-0.3010 IS 2337 </s>
-0.3010 IS 2338 </s>
-0.3010 IS 2340 </s>
-0.3010 IS 2341 </s>
-0.3010 IS 2342 </s>
-0.3010 IS 2344 </s>
-0.3010 IS 2346 </s>
-0.3010 IS 2347 </s>
-0.3010 IS 2350 </s>
-0.3010 IS 2355 </s>
-0.3010 IS 2356 </s>
-0.3010 IS 2357 </s>
-0.3010 IS 2358 </s>
-0.3010 IS 2359 </s>
-0.3010 IS 2360 </s>
-0.3010 IS 2361 </s>
-0.3010 IS 2362 </s>
-0.3010 IS 2363 </s>
-0.3010 KLAUBA, HOW DO
-0.3010 KLAUBA, STOP </s>
-0.3010 KLAUBA, WHAT ROOM
-0.3010 KLAUBA, WHERE AM
-1.9638 ME TO 2332
-1.9638 ME TO 2333
-1.9638 ME TO 2334
-1.9638 ME TO 2335
-1.9638 ME TO 2336
-1.9638 ME TO 2337
-1.9638 ME TO 2338
-1.9638 ME TO 2340
-1.9638 ME TO 2341
-1.9638 ME TO 2342
-1.9638 ME TO 2344
-1.9638 ME TO 2346
-1.9638 ME TO 2347
-1.9638 ME TO 2350
-1.9638 ME TO 2355
-1.9638 ME TO 2356
-1.9638 ME TO 2357
-1.9638 ME TO 2358
-1.9638 ME TO 2359
-1.9638 ME TO 2360
-1.9638 ME TO 2361
-1.9638 ME TO 2362
-1.9638 ME TO 2363
-0.6021 ME TO ROOM
-0.3010 MOVE BACKWARD </s>
-0.3010 MOVE FORWARD </s>
-0.3010 MOVE LEFT </s>
-0.3010 MOVE RIGHT </s>
-1.9638 MOVE TO 2332
-1.9638 MOVE TO 2333
-1.9638 MOVE TO 2334
-1.9638 MOVE TO 2335
-1.9638 MOVE TO 2336
-1.9638 MOVE TO 2337
-1.9638 MOVE TO 2338
-1.9638 MOVE TO 2340
-1.9638 MOVE TO 2341
-1.9638 MOVE TO 2342
-1.9638 MOVE TO 2344
-1.9638 MOVE TO 2346
-1.9638 MOVE TO 2347
-1.9638 MOVE TO 2350
-1.9638 MOVE TO 2355
-1.9638 MOVE TO 2356
-1.9638 MOVE TO 2357
-1.9638 MOVE TO 2358
-1.9638 MOVE TO 2359
-1.9638 MOVE TO 2360
-1.9638 MOVE TO 2361
-1.9638 MOVE TO 2362
-1.9638 MOVE TO 2363
-0.6021 MOVE TO ROOM
-0.3010 ROOM 2332 </s>
-0.3010 ROOM 2333 </s>
-0.3010 ROOM 2334 </s>
-0.3010 ROOM 2335 </s>
-0.3010 ROOM 2336 </s>
-0.3010 ROOM 2337 </s>
-0.3010 ROOM 2338 </s>
-0.3010 ROOM 2340 </s>
-0.3010 ROOM 2341 </s>
-0.3010 ROOM 2342 </s>
-0.3010 ROOM 2344 </s>
-0.3010 ROOM 2346 </s>
-0.3010 ROOM 2347 </s>
-0.3010 ROOM 2350 </s>
-0.3010 ROOM 2355 </s>
-0.3010 ROOM 2356 </s>
-0.3010 ROOM 2357 </s>
-0.3010 ROOM 2358 </s>
-0.3010 ROOM 2359 </s>
-0.3010 ROOM 2360 </s>
-0.3010 ROOM 2361 </s>
-0.3010 ROOM 2362 </s>
-0.3010 ROOM 2363 </s>
-0.3010 ROOM AM I
-0.3010 SHOW ME TO
-0.3010 STOP MOVING </s>
-0.3010 TAKE ME TO
-0.3010 THE ATRIUM? </s>
-0.3010 TO 2332 </s>
-0.3010 TO 2333 </s>
-0.3010 TO 2334 </s>
-0.3010 TO 2335 </s>
-0.3010 TO 2336 </s>
-0.3010 TO 2337 </s>
-0.3010 TO 2338 </s>
-0.3010 TO 2340 </s>
-0.3010 TO 2341 </s>
-0.3010 TO 2342 </s>
-0.3010 TO 2344 </s>
-0.3010 TO 2346 </s>
-0.3010 TO 2347 </s>
-0.3010 TO 2350 </s>
-0.3010 TO 2355 </s>
-0.3010 TO 2356 </s>
-0.3010 TO 2357 </s>
-0.3010 TO 2358 </s>
-0.3010 TO 2359 </s>
-0.3010 TO 2360 </s>
-0.3010 TO 2361 </s>
-0.3010 TO 2362 </s>
-0.3010 TO 2363 </s>
-1.6628 TO ROOM 2332
-1.6628 TO ROOM 2333
-1.6628 TO ROOM 2334
-1.6628 TO ROOM 2335
-1.6628 TO ROOM 2336
-1.6628 TO ROOM 2337
-1.6628 TO ROOM 2338
-1.6628 TO ROOM 2340
-1.6628 TO ROOM 2341
-1.6628 TO ROOM 2342
-1.6628 TO ROOM 2344
-1.6628 TO ROOM 2346
-1.6628 TO ROOM 2347
-1.6628 TO ROOM 2350
-1.6628 TO ROOM 2355
-1.6628 TO ROOM 2356
-1.6628 TO ROOM 2357
-1.6628 TO ROOM 2358
-1.6628 TO ROOM 2359
-1.6628 TO ROOM 2360
-1.6628 TO ROOM 2361
-1.6628 TO ROOM 2362
-1.6628 TO ROOM 2363
-0.3010 TO THE ATRIUM?
-0.3010 TODAY, KLAUBA? </s>
-0.3010 WHAT BUILDING AM
-0.3010 WHAT ROOM AM
-0.3010 WHERE AM I?
-1.6628 WHERE IS 2332
-1.6628 WHERE IS 2333
-1.6628 WHERE IS 2334
-1.6628 WHERE IS 2335
-1.6628 WHERE IS 2336
-1.6628 WHERE IS 2337
-1.6628 WHERE IS 2338
-1.6628 WHERE IS 2340
-1.6628 WHERE IS 2341
-1.6628 WHERE IS 2342
-1.6628 WHERE IS 2344
-1.6628 WHERE IS 2346
-1.6628 WHERE IS 2347
-1.6628 WHERE IS 2350
-1.6628 WHERE IS 2355
-1.6628 WHERE IS 2356
-1.6628 WHERE IS 2357
-1.6628 WHERE IS 2358
-1.6628 WHERE IS 2359
-1.6628 WHERE IS 2360
-1.6628 WHERE IS 2361
-1.6628 WHERE IS 2362
-1.6628 WHERE IS 2363
-0.3010 YOU TODAY, KLAUBA?
-0.3010 YOU TODAY? </s>

\end\
